62 62
14 0.20352103 0.0347126 -0.2858571 0.0568005 -0.1321735 0.24803756 0.034041844 0.1792862 0.10602768 -0.3869357 0.06373965 -0.13741863 0.030527195 0.14245276 0.059355624 -0.10634519 -0.2711733 -0.1452718 0.076354206 0.23055592 0.17319939 -0.091484465 -0.07413149 -0.3874974 0.044606455 0.19336487 0.06961651 0.04711285 0.2648903 -0.10965046 0.20599289 0.0054119565 0.009073357 0.054026525 -0.06968854 -0.30308676 0.14832589 0.022582378 -0.44667947 -0.09852628 0.21279538 0.027615301 -0.19089437 0.11170897 -0.094803035 -0.011608722 -0.036602728 -0.11838405 0.3212473 -0.17999871 -0.14932522 0.108054526 0.075898804 -0.12566285 0.007738359 -0.39716497 -0.119458586 -0.2451511 -0.053355057 -0.020405836 0.10899015 -0.044451937
37 0.24121949 0.011155578 -0.27389613 0.013258713 -0.14924258 0.26497063 0.09213354 0.17551637 0.10895191 -0.4323673 0.10642314 -0.19909623 0.023801612 0.20357428 0.07568776 -0.14219376 -0.29464597 -0.17617387 0.06676767 0.2813048 0.20738395 -0.067013174 -0.082978256 -0.4094782 0.015835637 0.18340674 0.08462345 0.04650159 0.29722854 -0.13383204 0.22097662 -0.0025843526 -0.019106913 0.04208626 -0.05599364 -0.27523005 0.119893715 0.038748045 -0.45522004 -0.06094914 0.22153476 0.018313486 -0.19175449 0.12990011 -0.018357117 0.031913254 -0.043162983 -0.16405544 0.35045782 -0.15182869 -0.16940878 0.15975086 0.039060414 -0.11563113 0.020896329 -0.42682138 -0.17454402 -0.27945834 -0.009149583 -0.04631619 0.14129604 0.023387427
45 0.31000817 -0.008550187 -0.3152223 -0.015141673 -0.06350952 0.25547227 0.10705222 0.18668315 0.1201716 -0.40897235 0.057623018 -0.15373828 0.056570802 0.15467006 -0.023104157 -0.14716697 -0.29065412 -0.20371804 0.085102156 0.2038178 0.1444085 -0.08475538 -0.19720009 -0.35217676 0.04042578 0.16308047 0.0454672 0.03561014 0.29924983 -0.089110754 0.2559393 -0.02746339 0.035239194 0.11322839 -0.08583894 -0.38264424 0.17530714 0.01691482 -0.47008494 -0.11173753 0.26326764 0.0746206 -0.21157499 0.091214485 -0.06722531 -0.040488034 0.0018481633 -0.0986408 0.297098 -0.16766499 -0.1647038 0.11711585 0.032840695 -0.13815331 0.05139271 -0.4584059 -0.12263814 -0.2787422 -0.08176422 0.047514178 0.09967126 -0.08809486
33 0.16472352 0.0451974 -0.25871676 0.0747233 -0.17580347 0.2479971 0.033210844 0.16619696 0.111783005 -0.4141712 0.11179701 -0.1704085 -0.0040225605 0.19140024 0.10746572 -0.110233516 -0.28884435 -0.14087833 0.059565462 0.2923346 0.21902055 -0.06687163 -0.017999407 -0.41971654 0.03574695 0.18660785 0.102824494 0.05055522 0.26231828 -0.1424013 0.19687676 0.013414277 -0.008910812 0.020217365 -0.04906305 -0.23319928 0.089983866 0.04439968 -0.43361756 -0.07741874 0.19360149 -0.020039473 -0.17369303 0.12816061 -0.041649144 0.037159402 -0.063638724 -0.17626454 0.40387508 -0.14803857 -0.16494764 0.14398003 0.08811321 -0.11721039 -0.01709148 -0.40714264 -0.15671925 -0.25312015 -0.0047757765 -0.08676496 0.123709716 0.025679102
17 -0.4622484 0.19199474 -0.27991095 0.59619355 -0.09875092 0.30869147 -0.6126467 0.09912096 0.0024803295 0.051217776 -0.099878676 0.22479625 -0.014255741 -0.41971624 0.21046908 0.07863968 -0.08122883 -0.09752283 0.14580558 0.036480594 0.15778469 -0.34936413 0.08409513 -0.38311687 0.101417586 0.0235822 0.27062503 0.079514295 -0.030280761 -0.14919685 0.057161488 0.073195085 0.07162478 0.05507559 0.021725653 -0.14511552 0.08534105 -0.049726333 -0.25631326 -0.39753076 0.13198377 0.13714807 -0.28040674 -0.07649278 -0.7327318 -0.33682233 -0.07765867 0.14198144 0.21371129 -0.33993617 -0.24951652 -0.38929456 0.3270805 -0.3103281 -0.30671373 -0.047855753 0.3092801 -0.22471742 -0.34859294 -0.05504828 0.09272717 -0.2934466
51 0.3723258 -0.03331362 -0.37686294 -0.04303697 0.03287714 0.26054683 0.14016946 0.19161336 0.17674172 -0.44144 0.03334739 -0.1667055 0.10967081 0.14848064 -0.07468529 -0.19064575 -0.30736536 -0.2571803 0.11948702 0.14598092 0.11271225 -0.10598959 -0.32163894 -0.34710044 0.02352476 0.1429229 0.012733366 0.039441004 0.32270223 -0.07106323 0.31714356 -0.07178463 0.06258724 0.17225547 -0.10773357 -0.4852732 0.22802007 -0.0005178079 -0.5112669 -0.14579444 0.29413956 0.13758282 -0.23604359 0.04437037 -0.104247406 -0.117530406 0.03397496 -0.05145631 0.20093718 -0.19075249 -0.18271396 0.06652615 0.0035822713 -0.13152048 0.08668818 -0.48556432 -0.08619792 -0.25377876 -0.15000325 0.13896553 0.071997166 -0.1482934
57 -0.40543604 0.19864193 -0.28412932 0.5478732 -0.10180082 0.3071938 -0.53579706 0.10526956 0.013174341 0.008882154 -0.1145249 0.15089634 -0.010245277 -0.36085385 0.22989427 0.062486153 -0.12305875 -0.14311257 0.18536611 0.033342797 0.12983449 -0.32016602 0.08360917 -0.38916138 0.11991399 0.056463562 0.23963426 0.07884318 0.0077499067 -0.11235984 0.066700675 0.026462996 0.028355744 0.028345475 0.04628847 -0.14644578 0.14670356 -0.05562572 -0.29313093 -0.3419767 0.14804788 0.1378241 -0.26102886 -0.07895819 -0.7039963 -0.31611225 -0.078126945 0.17506815 0.16674848 -0.34842044 -0.20671529 -0.36333755 0.22990286 -0.2767176 -0.27518165 -0.07309711 0.23749049 -0.20580348 -0.33456716 -0.019583996 0.12924047 -0.2362067
29 0.33005765 -0.028018516 -0.3359024 -0.040302504 -0.036083452 0.26483318 0.122273825 0.18052715 0.14892326 -0.4497421 0.08076603 -0.1861216 0.06500146 0.18163744 -0.019664861 -0.15891986 -0.28487998 -0.22952907 0.06511964 0.20653065 0.17200775 -0.093252815 -0.24035445 -0.384844 0.0036555487 0.14119126 0.047956415 0.04699822 0.33335367 -0.11804907 0.27068895 -0.040009122 0.022820314 0.10176109 -0.10236535 -0.38160604 0.15858117 0.027499508 -0.48115763 -0.099581525 0.2666473 0.0856029 -0.22001822 0.08559289 -0.063085414 -0.058024008 0.0046292245 -0.10363608 0.28253564 -0.16830598 -0.18255222 0.10772286 0.01845896 -0.13166851 0.082144536 -0.4755542 -0.13750108 -0.27755567 -0.08453816 0.056308296 0.11224874 -0.06932578
20 0.08516541 0.04670586 -0.24631403 0.11475188 -0.11065056 0.2224205 -0.043711867 0.14305668 0.10619067 -0.3209513 0.06859708 -0.10020829 0.017496852 0.09081616 0.07745426 -0.07177462 -0.21777503 -0.13939182 0.04691969 0.202001 0.19351758 -0.12974483 -0.077232495 -0.35439315 0.014457418 0.13259096 0.09837285 0.048720323 0.22185886 -0.14025444 0.15258116 0.0061464864 0.003941634 0.023805268 -0.042988356 -0.23435047 0.118039496 0.0032626153 -0.39005226 -0.10165488 0.20002672 0.05097396 -0.19548553 0.082250334 -0.12150349 -0.041965738 -0.037413016 -0.08541322 0.2928646 -0.16463584 -0.18456784 0.05152995 0.092803255 -0.1363269 -0.014259104 -0.32018778 -0.08927537 -0.23958848 -0.07121757 -0.025367232 0.0915421 -0.042738773
13 -0.5061866 0.21343389 -0.30748397 0.6588948 -0.11930002 0.3392715 -0.6626734 0.08728393 0.0150135355 0.04507843 -0.1388743 0.19853356 -0.042094015 -0.44634134 0.26056963 0.08544838 -0.10263267 -0.14887242 0.2005747 0.031147748 0.13905421 -0.37539265 0.11738274 -0.4012493 0.14026175 0.03577718 0.27417117 0.08309274 -0.03048262 -0.12065364 0.035699617 0.024412138 0.028150752 0.013847117 0.050038192 -0.13737634 0.15732639 -0.08113698 -0.30074915 -0.37983117 0.13582025 0.1758937 -0.2912649 -0.095228456 -0.82061845 -0.3693762 -0.0982922 0.20821843 0.17309643 -0.39370304 -0.23877339 -0.4250429 0.2725471 -0.30804485 -0.32918638 -0.047726825 0.28874102 -0.22360227 -0.38617837 -0.04084286 0.15808895 -0.2596692
1 -0.24148859 0.09355694 -0.21472597 0.36868572 -0.029543169 0.2102684 -0.36017376 0.07501492 0.092203096 -0.09899687 0.0083429 0.08303516 0.019568602 -0.21873875 0.11775921 0.0694077 -0.076707706 -0.08622124 0.040788505 0.07557428 0.17643595 -0.27920735 -0.021332536 -0.2939531 0.027129509 -0.019759035 0.16294183 0.105734564 0.0490463 -0.19679926 0.08049585 0.05115819 0.050012913 0.016033651 -0.01517321 -0.20155473 0.04021734 -0.025235988 -0.2704116 -0.27431273 0.13159472 0.122964084 -0.2158276 -0.0012550338 -0.43661296 -0.23778929 -0.065919735 0.028301612 0.2047459 -0.2144834 -0.28157496 -0.21913444 0.23996124 -0.21796715 -0.17121744 -0.095212 0.15293646 -0.20283747 -0.1871933 -0.027190084 0.031314686 -0.18917182
40 0.09639629 0.05299731 -0.2607804 0.12490773 -0.10039894 0.22742614 -0.04599925 0.14387222 0.0885522 -0.2908473 0.045871668 -0.07303498 0.022557015 0.0473189 0.07351612 -0.06354608 -0.21421625 -0.14292978 0.06341475 0.16880779 0.15368782 -0.119402416 -0.066243276 -0.3462412 0.037067764 0.12730156 0.08785087 0.04934666 0.1940581 -0.113522395 0.1654382 0.00470965 0.0137105 0.040910732 -0.050676048 -0.2530245 0.1059681 0.0057514813 -0.367067 -0.12832472 0.17955367 0.053308494 -0.17802037 0.06535903 -0.16780084 -0.07414933 -0.042154726 -0.07600097 0.2749462 -0.17082398 -0.16952577 0.026592782 0.09554382 -0.13618352 -0.03285538 -0.32195953 -0.043294095 -0.22394204 -0.0875872 -0.009906264 0.09557527 -0.07680946
9 -0.50602376 0.212704 -0.27210978 0.6191597 -0.1131119 0.30710396 -0.63252383 0.072530255 0.008920198 0.051646475 -0.11876906 0.17834534 -0.03568832 -0.41926754 0.26463985 0.085495755 -0.071842164 -0.12649217 0.18330781 0.027703864 0.1261412 -0.34647262 0.11892606 -0.39219347 0.11437698 0.018082125 0.2627465 0.09413926 -0.035403438 -0.1249036 0.034875825 0.037857052 0.021834694 0.01034659 0.0567895 -0.113919556 0.12888877 -0.06684619 -0.26729017 -0.34158787 0.12781388 0.1494048 -0.25296855 -0.08625952 -0.7580291 -0.34775266 -0.09176015 0.20200396 0.15624763 -0.36917698 -0.22006571 -0.41645938 0.26021728 -0.3002638 -0.3184852 -0.023392633 0.29028824 -0.20171745 -0.34749174 -0.031167334 0.14945032 -0.24529006
38 0.097685866 0.06399843 -0.2407413 0.13343465 -0.25420994 0.27770552 -0.011246931 0.16194193 0.12791832 -0.45790365 0.18309164 -0.1918779 -0.0335617 0.24629052 0.17479664 -0.06594329 -0.2741296 -0.12386459 0.0006857656 0.36207736 0.28199634 -0.09199238 0.056961082 -0.47790915 0.026581839 0.20015809 0.13370143 0.07570832 0.26039022 -0.23047349 0.15592787 0.038672533 -0.039082408 -0.057726298 -0.03472824 -0.18399109 0.05895176 0.049994458 -0.4712767 -0.039315384 0.1973626 -0.06044317 -0.1833973 0.183964 -0.03632226 0.066553704 -0.106547885 -0.22624259 0.48050383 -0.13537098 -0.2229909 0.16938218 0.10894064 -0.0984936 -0.013409076 -0.36840212 -0.21617514 -0.28173885 0.04846134 -0.15944125 0.14668407 0.080743454
54 -0.39537016 0.16332087 -0.2545784 0.5365713 -0.07042164 0.26586586 -0.5415329 0.078839704 0.051901385 0.010876468 -0.081465155 0.16481714 -0.014543546 -0.3625947 0.1872566 0.08361564 -0.08512044 -0.09577402 0.12853435 0.04756541 0.15485397 -0.3376306 0.04480961 -0.3444209 0.09418985 0.005602845 0.22147197 0.08503611 -0.01395946 -0.15424334 0.04650567 0.05166494 0.049019255 0.022179445 0.019043515 -0.15467402 0.08189517 -0.053078666 -0.25024736 -0.33884573 0.12069502 0.14546615 -0.24030991 -0.066969536 -0.6577856 -0.31146425 -0.07527678 0.138498 0.17961243 -0.30455709 -0.25337854 -0.3401147 0.27222326 -0.27656004 -0.26891765 -0.03603667 0.25577053 -0.1951651 -0.29981965 -0.040480282 0.097699754 -0.23478912
50 0.2286076 6.315706e-05 -0.30494204 0.030493785 -0.079500124 0.24943174 0.062599085 0.16468568 0.1491966 -0.42011663 0.08432199 -0.17120524 0.048498634 0.1536802 0.032777842 -0.11084434 -0.27752197 -0.19178633 0.060858294 0.22090039 0.18270941 -0.1165352 -0.15807562 -0.38542864 0.00019791978 0.13936767 0.058524583 0.07104254 0.27822605 -0.1387586 0.23141803 -0.027603418 0.008045853 0.06125108 -0.07734016 -0.33206952 0.14716169 0.0192688 -0.46168664 -0.078583136 0.22747254 0.06252091 -0.19917975 0.102058314 -0.0720819 -0.046263464 -0.017137783 -0.117644295 0.2890747 -0.16941668 -0.179315 0.09346781 0.034293063 -0.12248011 0.04124058 -0.40944958 -0.12993719 -0.24924028 -0.058452588 0.014592997 0.10266443 -0.034889143
15 0.3004817 -0.020930622 -0.3411678 -0.010377821 0.017695209 0.22713259 0.077319756 0.16265774 0.16283639 -0.38091898 0.029315175 -0.13038014 0.07321902 0.07976288 -0.042990964 -0.12642539 -0.2539576 -0.2231411 0.07858656 0.12261547 0.12389131 -0.13049293 -0.28457433 -0.33234954 0.013761578 0.11429969 0.0107502565 0.06367296 0.2979687 -0.09039396 0.25899807 -0.057945665 0.043352857 0.124835424 -0.10560961 -0.42539394 0.18434478 -0.005058299 -0.45334387 -0.14265284 0.2651592 0.13858867 -0.22682916 0.058815446 -0.1318206 -0.12291463 0.02442688 -0.05111144 0.19670188 -0.19580594 -0.19158304 0.033838987 0.021510303 -0.14341518 0.08618795 -0.4412115 -0.06508199 -0.24937779 -0.13869318 0.11688803 0.088775404 -0.14040703
43 0.11488471 0.040220745 -0.24601506 0.097347066 -0.22394401 0.2870953 0.012231706 0.16567095 0.12412513 -0.44507474 0.15968326 -0.20428513 -0.023052257 0.24062192 0.15061955 -0.077402055 -0.2762724 -0.15613773 0.012603947 0.32428476 0.26472446 -0.092493884 0.0011888391 -0.46938163 0.02112591 0.16242743 0.13544087 0.07107721 0.25546 -0.22416048 0.18398076 0.01739377 -0.04565169 -0.043732256 -0.030089071 -0.1828493 0.054762047 0.04414474 -0.43621373 -0.020489378 0.18935707 -0.046120536 -0.17575383 0.151139 -0.0069962256 0.06422989 -0.08659413 -0.21618825 0.44892186 -0.12408534 -0.21084104 0.18254963 0.06066409 -0.09902714 -0.0009159281 -0.4044019 -0.2335461 -0.28779122 0.058458503 -0.1398566 0.1556201 0.084932625
36 0.0015932331 0.06235121 -0.2565794 0.20042151 -0.023114316 0.21662652 -0.1685263 0.13300523 0.06270445 -0.15900744 -0.027791036 0.01274823 0.041611392 -0.11599528 0.051101703 -0.039181422 -0.1679449 -0.1394667 0.11221114 0.0873903 0.12102213 -0.17911115 -0.075935856 -0.26916522 0.049313612 0.08512406 0.091461465 0.039528728 0.14855416 -0.079609856 0.12896031 0.00352645 0.036615398 0.080846705 -0.032514255 -0.24831142 0.13527957 -0.0070074415 -0.31633243 -0.20406872 0.17962943 0.09530977 -0.21091653 -0.0008893133 -0.29045856 -0.1586324 0.010066493 0.040116623 0.18116704 -0.2122177 -0.1415562 -0.107595295 0.10372462 -0.1881027 -0.07254045 -0.21365224 0.047007166 -0.21274465 -0.19295001 0.025483308 0.06911756 -0.16282876
18 0.25167623 0.011534798 -0.32065657 0.019522415 -0.0580797 0.25354183 0.061426416 0.16146944 0.13007137 -0.3886567 0.0728605 -0.13781735 0.051319797 0.14002772 0.0058936155 -0.13108666 -0.27580336 -0.20017283 0.08115258 0.19087622 0.14783399 -0.09832431 -0.17678699 -0.36824042 0.030157277 0.13981105 0.061439328 0.038478162 0.2860546 -0.10810221 0.23119208 -0.021248074 0.022868788 0.078184724 -0.08827809 -0.35186338 0.16926928 0.013238756 -0.44526613 -0.113633744 0.23995338 0.08004737 -0.20842217 0.077173024 -0.09082616 -0.06621357 -0.0139393145 -0.100090496 0.27237615 -0.1652997 -0.16190116 0.08111486 0.027945083 -0.13520053 0.049294867 -0.4342572 -0.11353648 -0.25572762 -0.09262379 0.03795151 0.11095964 -0.077590585
16 0.08148283 0.05613666 -0.22924832 0.13527009 -0.1477616 0.23371135 -0.0457227 0.1417255 0.09927734 -0.33631435 0.08386932 -0.11267267 0.0063242847 0.0984117 0.11352389 -0.059577845 -0.23204769 -0.1260937 0.04525056 0.23355357 0.212157 -0.114853635 -0.019725978 -0.37025726 0.018032743 0.15099287 0.09640914 0.057630885 0.22275323 -0.16092521 0.15889777 0.034521203 0.0069021625 0.008457335 -0.04708024 -0.22135852 0.08838225 0.021164326 -0.38775998 -0.095397115 0.18721509 0.027738184 -0.18630312 0.11710024 -0.10983838 -0.02145138 -0.062430188 -0.12913013 0.32995382 -0.16854641 -0.17282012 0.07131204 0.102291174 -0.1435643 -0.030010795 -0.3277396 -0.09786129 -0.24085213 -0.057437766 -0.057877738 0.09935849 -0.008369722
6 -0.41156736 0.18310666 -0.28285807 0.5524944 -0.11187432 0.3013885 -0.5565559 0.09551638 0.004506872 0.024476878 -0.1107349 0.15959898 -0.02806224 -0.36011583 0.23260112 0.049663246 -0.0941973 -0.13263153 0.16369478 0.03659983 0.12968647 -0.31985497 0.0813112 -0.38234988 0.11716829 0.046161525 0.24739853 0.07336194 0.0017641135 -0.10430617 0.04455214 0.03365097 0.030038737 0.032878734 0.038293734 -0.12616888 0.14123772 -0.06209467 -0.27725375 -0.32119355 0.13860196 0.1393595 -0.26444712 -0.07573089 -0.6892123 -0.3089981 -0.086033195 0.15986049 0.1870128 -0.34592688 -0.21778451 -0.34617352 0.24603209 -0.27514863 -0.27349254 -0.074665986 0.24719413 -0.2135675 -0.3297298 -0.041212197 0.1405608 -0.24125782
24 0.29953185 -0.007851316 -0.33906284 -0.018624978 -0.051788285 0.26398134 0.11145507 0.17346618 0.1499785 -0.44488624 0.07292879 -0.17006722 0.06438116 0.16596998 0.0028727823 -0.14804626 -0.2829114 -0.23039424 0.07160471 0.20064759 0.17089657 -0.104276694 -0.2252681 -0.38546392 0.014187622 0.14561701 0.046104334 0.058818404 0.3167598 -0.11647245 0.25466874 -0.048570964 0.014009546 0.093833104 -0.10228739 -0.38616583 0.1773162 0.013075616 -0.48902208 -0.10395013 0.26503974 0.09280362 -0.21324347 0.092045076 -0.06870686 -0.05836885 0.0017919438 -0.09727404 0.26206288 -0.17999898 -0.17494956 0.11647303 0.01342943 -0.12613533 0.0738513 -0.46496993 -0.13999885 -0.25954512 -0.07576465 0.065245956 0.095529705 -0.07213954
42 -0.037783347 -0.04304026 -0.18950999 0.16880749 -0.041939694 0.18383655 -0.12990531 0.054330908 0.19357032 -0.31819883 0.15022106 -0.13404867 0.0068253814 0.06353359 0.11154523 0.02929997 -0.11467397 -0.18457147 -0.011743801 0.1838382 0.22526588 -0.2097485 -0.10919604 -0.35475662 -0.032686226 -0.030381104 0.09047637 0.16446209 0.16434175 -0.27924114 0.12503254 -0.010520589 -0.03281399 -0.073928006 -0.04004639 -0.23464125 0.008044528 -0.0016561209 -0.39804742 -0.08520211 0.16827765 0.09280353 -0.16409767 0.091224045 -0.1750794 -0.09322099 -0.09767585 -0.12590528 0.26622444 -0.12042358 -0.34066838 0.006615678 0.097165 -0.093725234 0.0076261186 -0.2942346 -0.09999697 -0.2634014 -0.0043237833 -0.04793399 0.123047195 -0.0036081164
8 0.1741908 -0.001185907 -0.25288713 0.060618673 -0.042523995 0.20992258 0.0128715 0.14471555 0.15129836 -0.3599008 0.07219034 -0.13302493 0.039684564 0.09508014 0.03631695 -0.079315774 -0.22753367 -0.15736924 0.038485996 0.17605042 0.1778909 -0.13972248 -0.14843875 -0.3186485 -0.0038145424 0.10927583 0.047780465 0.07698968 0.2415395 -0.15558614 0.18307786 -0.0032301191 0.024882201 0.04326508 -0.080312535 -0.3355575 0.12964384 0.007585851 -0.42682394 -0.107960224 0.21837874 0.08307526 -0.20501307 0.09235285 -0.09564138 -0.059110634 -0.010563861 -0.09198013 0.26411498 -0.16103472 -0.20192763 0.04626808 0.067643575 -0.1329096 0.02974669 -0.3627557 -0.091516085 -0.2541016 -0.08845095 0.03505565 0.07354888 -0.058781806
47 -0.002598706 -0.023359464 -0.20076352 0.14502846 -0.06747286 0.1816744 -0.09252351 0.057411484 0.187855 -0.33116457 0.14146517 -0.13784748 0.0114263045 0.09664037 0.094070196 0.01186953 -0.1371017 -0.15547758 -0.031651046 0.194747 0.23288265 -0.18269889 -0.0922029 -0.3467842 -0.024413247 -0.0003915442 0.08738498 0.14069542 0.1826513 -0.2649968 0.12259742 0.011095499 -0.034014054 -0.06964851 -0.06248165 -0.22950578 0.010644844 0.006653645 -0.39675942 -0.07973727 0.16319558 0.07324984 -0.15613972 0.11272478 -0.12564701 -0.07178648 -0.09055752 -0.13907541 0.2818508 -0.1172908 -0.31200266 0.038326547 0.104198165 -0.102582164 0.0045355945 -0.29908088 -0.10406188 -0.23939836 0.01217599 -0.05496846 0.111909285 0.014042579
0 0.035816178 0.015623043 -0.23272297 0.15340476 -0.08776305 0.2118311 -0.08561197 0.09674614 0.16604023 -0.32900268 0.11127557 -0.10693627 0.011264852 0.083868645 0.1028999 -0.01905089 -0.1783096 -0.15082304 0.025110409 0.19933091 0.19763316 -0.17030555 -0.079732314 -0.3779901 -0.0042700535 0.05071701 0.09548849 0.097450614 0.18883425 -0.21566957 0.15787555 -0.0009522956 -0.0132017 -0.0282943 -0.051429708 -0.25019506 0.068249576 0.0013714952 -0.38603655 -0.10106959 0.16751492 0.06372767 -0.16427384 0.085810415 -0.15615346 -0.07154732 -0.075294375 -0.08889804 0.2532307 -0.14782108 -0.2378155 0.01603354 0.10241685 -0.11075359 -0.0023174358 -0.28375024 -0.0693164 -0.21051656 -0.030257508 -0.029984701 0.10012949 -0.03421856
21 0.33565238 -0.011379703 -0.33424988 -0.030063735 -0.0852484 0.28139874 0.14105912 0.19576997 0.13026324 -0.46865398 0.0877017 -0.19555251 0.05830292 0.22137882 -0.00094595586 -0.1664185 -0.3149176 -0.21659362 0.077040665 0.2320732 0.1809868 -0.054464124 -0.18886176 -0.40525877 0.03394988 0.18652585 0.065065436 0.0388559 0.32946092 -0.09565832 0.2764517 -0.022587936 0.017818185 0.09914113 -0.09195642 -0.36987144 0.16121711 0.031413194 -0.5025859 -0.08660071 0.26502997 0.0559852 -0.21778625 0.1014236 -0.041825905 -0.012376814 -0.012332227 -0.13618043 0.32386923 -0.17078868 -0.17028648 0.14947072 0.015656922 -0.116363 0.063677676 -0.49882153 -0.1668665 -0.27634987 -0.05982541 0.025020534 0.11289557 -0.049611975
27 -0.4013677 0.12732407 -0.22048092 0.52740735 -0.04973457 0.24098411 -0.545736 0.08246748 0.043556973 0.0032874686 -0.017172508 0.21863368 -0.009027893 -0.34423324 0.14440888 0.11220793 -0.043864824 -0.070089616 0.0224056 0.06883558 0.23124751 -0.35796398 0.01573609 -0.3158885 0.027668238 -0.037189864 0.25164437 0.112059705 -0.003654327 -0.226192 0.026069794 0.12444206 0.10460062 0.031045921 -0.035254918 -0.18448873 -0.006055997 -0.05114267 -0.21700117 -0.38744003 0.10870898 0.12620932 -0.2708721 -0.03703703 -0.6077554 -0.29321462 -0.08312517 0.05641248 0.24211732 -0.26678598 -0.32603723 -0.31760257 0.3683544 -0.28429633 -0.26809677 -0.034483284 0.28163156 -0.21550308 -0.27984735 -0.07715095 0.0061189644 -0.2678227
41 -0.37339914 0.16490772 -0.25907275 0.51051044 -0.08281273 0.26301488 -0.510869 0.06956433 0.04957903 -0.0063363453 -0.086131975 0.14341348 -0.008947816 -0.33996955 0.20319013 0.06855355 -0.08649636 -0.11452782 0.1388097 0.024536235 0.13480182 -0.3110836 0.04606747 -0.33497745 0.08486014 0.009562159 0.20673628 0.07706101 0.0035945754 -0.12044978 0.056598045 0.040122394 0.03873133 0.034037843 0.015720855 -0.17389154 0.108487114 -0.056947596 -0.2773299 -0.3230413 0.13211867 0.14380279 -0.24353005 -0.05682131 -0.6443157 -0.29465213 -0.08361438 0.15253387 0.16226241 -0.31585264 -0.2237909 -0.33963066 0.23574167 -0.26169693 -0.25177777 -0.069916904 0.23297918 -0.1977591 -0.2984699 -0.020806275 0.113923095 -0.22102495
34 0.13230862 0.057836995 -0.22980769 0.081472285 -0.2336869 0.2704301 0.02443041 0.17403774 0.13464656 -0.45929214 0.16305766 -0.21946871 -0.032822307 0.27579153 0.14954422 -0.10161718 -0.29315928 -0.14737475 0.022834383 0.35959038 0.2877858 -0.06528893 0.023773951 -0.46405798 0.018484214 0.21241403 0.12236085 0.06436455 0.29120663 -0.19831559 0.1614997 0.022619441 -0.07317347 -0.06407294 -0.05209665 -0.19271493 0.10967595 0.05758698 -0.4891188 -0.01074436 0.21652575 -0.056611195 -0.19844972 0.19046497 0.01021944 0.07266235 -0.10292379 -0.23381515 0.49243444 -0.13482939 -0.22139116 0.20606725 0.072631806 -0.118465416 0.004953559 -0.4431408 -0.2534428 -0.3183696 0.047228783 -0.14889503 0.1749714 0.10662233
10 0.024795953 -0.022362046 -0.21103914 0.12753864 -0.08901367 0.2154343 -0.06724156 0.06345055 0.17695354 -0.3767533 0.17367789 -0.16683307 0.021187456 0.15393206 0.1269547 -0.003073873 -0.15877646 -0.1949018 -0.014075106 0.20609789 0.23910673 -0.1829451 -0.09856929 -0.4097444 -0.033510204 0.013370054 0.10412311 0.14054894 0.19964036 -0.26015615 0.15936998 -0.009343247 -0.048841607 -0.06986492 -0.040105462 -0.23417744 0.028979316 0.0030586745 -0.42724618 -0.04580292 0.1826568 0.07324526 -0.17292178 0.10658709 -0.118208826 -0.06912547 -0.09908613 -0.14484653 0.29158843 -0.14211078 -0.31529123 0.058655273 0.069277965 -0.08498166 0.039611645 -0.3544677 -0.14765044 -0.2667692 0.016653854 -0.052937925 0.16077681 0.033312406
59 0.2447754 0.015341393 -0.3086546 0.022113776 -0.046940677 0.22480182 0.044851493 0.16457093 0.10626833 -0.3449456 0.017486658 -0.115668535 0.048159536 0.07487346 0.014930649 -0.124457605 -0.26012772 -0.1855212 0.08808757 0.15075585 0.13973074 -0.114611514 -0.19259764 -0.32487753 0.025234684 0.15047485 0.04425259 0.048357658 0.2800482 -0.08950965 0.21105656 -0.035469446 0.023623597 0.10966464 -0.081078105 -0.35251063 0.17827904 -0.0058863354 -0.42042053 -0.12725812 0.23059326 0.10135407 -0.21449043 0.06419666 -0.12734437 -0.06818948 0.019332692 -0.038066853 0.2174498 -0.19186933 -0.14033355 0.04508801 0.0327168 -0.15667382 0.030206326 -0.38641265 -0.060008623 -0.2521055 -0.13380602 0.07697579 0.07263539 -0.094342045
7 -0.24165773 0.105842315 -0.23205675 0.37301964 -0.04267662 0.21358706 -0.35972816 0.07254972 0.0853668 -0.07513328 -0.009914653 0.08712741 -0.0011254067 -0.20788176 0.13017918 0.06416687 -0.08431156 -0.09758844 0.07011111 0.06871879 0.15782395 -0.26711714 -0.0017098493 -0.29523388 0.05362312 -0.008707191 0.16199979 0.09411917 0.02767434 -0.16325174 0.07237379 0.026931226 0.02990907 0.022255441 -0.01043619 -0.18864937 0.058970515 -0.037982043 -0.2617784 -0.25602344 0.12322308 0.11860654 -0.20292956 -0.024145674 -0.45679173 -0.22523467 -0.06169241 0.05527218 0.17774467 -0.2237398 -0.24181522 -0.2062852 0.2098994 -0.19616218 -0.1610668 -0.10639041 0.14828683 -0.17955488 -0.18974958 -0.03398007 0.06603184 -0.16516465
28 -0.13744706 0.031084662 -0.16777651 0.27025527 -0.04941953 0.16728008 -0.22658452 0.05219193 0.16081859 -0.23442154 0.11025205 -0.040517714 0.016892865 -0.035181142 0.10409408 0.07214341 -0.095435224 -0.09618497 -0.01599204 0.17614748 0.24021737 -0.23184459 -0.05265507 -0.30003437 -0.015280452 -0.04016559 0.12407778 0.12939195 0.096496955 -0.28544542 0.079056285 0.040035766 0.0026068261 -0.05103334 -0.02925951 -0.2104149 -0.011086594 -0.018503886 -0.30529246 -0.14731015 0.1256057 0.071387686 -0.1799284 0.08160791 -0.23573224 -0.104812324 -0.08217875 -0.07774044 0.2605803 -0.117518544 -0.30539352 -0.06471683 0.18893594 -0.1519014 -0.07628413 -0.15887573 -0.0053972723 -0.22540139 -0.060988657 -0.06927441 0.03199936 -0.054347914
30 -0.21990444 0.021415818 -0.1509475 0.30671018 -0.050037377 0.17653252 -0.27935785 0.027924845 0.18289314 -0.20550548 0.12175902 -0.038585115 0.007366999 -0.049552586 0.14749733 0.0997746 -0.069243394 -0.089869976 -0.026985828 0.15341207 0.23928022 -0.26124457 -0.017698698 -0.33111298 -0.02194731 -0.075428374 0.12962961 0.16311337 0.058334865 -0.30448642 0.07285969 0.042467985 -0.00034756877 -0.08332824 -0.015534825 -0.18155117 -0.035760365 -0.015574126 -0.30439445 -0.14764468 0.11013364 0.086240195 -0.16187881 0.06802735 -0.2837542 -0.15031679 -0.10688604 -0.07236562 0.25570625 -0.1251353 -0.34869614 -0.09379146 0.20048471 -0.1399636 -0.08293054 -0.130853 0.021219464 -0.20176825 -0.041501112 -0.08341975 0.070641525 -0.042805426
5 -0.45901206 0.20287725 -0.30555046 0.6075213 -0.12287323 0.31326213 -0.5962939 0.07206719 0.026650032 0.025918692 -0.13881274 0.16242293 -0.03730666 -0.4092022 0.26471424 0.07174726 -0.098260194 -0.15317613 0.20797916 0.023085034 0.11161004 -0.3445856 0.09327004 -0.41358095 0.12631536 0.03359753 0.2564862 0.09026516 -0.014622521 -0.10388022 0.05678201 0.00872322 0.0026588703 0.01599026 0.05502757 -0.13939765 0.17059417 -0.06392116 -0.3094419 -0.33509448 0.14562596 0.1705086 -0.26366794 -0.0947939 -0.78697795 -0.34879503 -0.0984861 0.21657817 0.17350103 -0.38761386 -0.21988602 -0.40692502 0.25144395 -0.2916816 -0.30449283 -0.068858206 0.2763073 -0.22054684 -0.35372677 -0.014779928 0.18083598 -0.2380044
52 0.30675605 0.00856402 -0.3176048 -0.012678325 -0.13829528 0.2601129 0.12913474 0.1981706 0.14596136 -0.48687166 0.10662828 -0.21610184 0.023647483 0.25253433 0.053299572 -0.15149094 -0.32289162 -0.18805285 0.06720202 0.2756032 0.19037303 -0.065575466 -0.12034672 -0.42446798 0.025193611 0.2151605 0.05387047 0.037298482 0.32894933 -0.12660356 0.24616216 -0.016354367 -0.004990178 0.04541646 -0.07978349 -0.3125875 0.15423904 0.031193644 -0.4858563 -0.048500635 0.24033418 0.009184219 -0.18404433 0.12765348 -0.002912305 0.023611283 -0.03366931 -0.16452064 0.34984577 -0.15843336 -0.15607123 0.18335067 0.013675938 -0.10331743 0.056941878 -0.4665062 -0.19343825 -0.25579503 -0.012611615 -0.020485597 0.13082351 -0.006881803
19 -0.31341392 0.11978066 -0.20266955 0.43468022 -0.03541399 0.21110958 -0.43028805 0.05775961 0.10709958 -0.064592674 0.01497832 0.109683596 0.004191294 -0.24956322 0.13253511 0.10886684 -0.07385174 -0.06458746 0.03886462 0.08131603 0.19674648 -0.29764792 0.02592884 -0.3017443 0.034641124 -0.04665807 0.17650267 0.111337245 -0.00033905578 -0.22588766 0.05469184 0.06562216 0.061008934 0.002513672 -0.015501868 -0.18328622 0.0040365816 -0.025187459 -0.23581271 -0.28552893 0.109581016 0.098725714 -0.210989 -0.013341333 -0.47350815 -0.22717454 -0.072426185 0.037238564 0.22119892 -0.21505535 -0.3003068 -0.24144275 0.26342404 -0.20713755 -0.20236878 -0.048356798 0.16950648 -0.17675723 -0.18165466 -0.0642858 0.025561221 -0.17863135
2 0.09642011 -0.024727155 -0.22595242 0.094871975 -0.17599727 0.27080035 0.026572844 0.11311497 0.185313 -0.49324816 0.213415 -0.27830073 -0.012719429 0.28767455 0.16703977 -0.07291678 -0.23399019 -0.21172412 -0.017420573 0.31377926 0.29795954 -0.12441978 -0.05977912 -0.479708 -0.032876354 0.09279723 0.12256481 0.13791814 0.28307813 -0.29095292 0.1751564 -0.006395986 -0.0740312 -0.09645032 -0.05237996 -0.2273395 0.038034305 0.033278167 -0.5274502 0.019360887 0.22632366 0.012775291 -0.18364586 0.1725409 0.0022843778 0.023960216 -0.09947779 -0.23705584 0.43667552 -0.13423553 -0.31341308 0.19082114 0.034605414 -0.08525789 0.05117479 -0.4542372 -0.2760474 -0.34514186 0.08564535 -0.115257815 0.2128118 0.12983826
44 0.069249704 0.04386212 -0.2080554 0.13120623 -0.21079181 0.24832219 -0.014448711 0.12841967 0.12517199 -0.40909737 0.16314496 -0.19286847 -0.032490507 0.2077312 0.16280858 -0.064493865 -0.24094418 -0.14636798 0.009257699 0.32038245 0.2709478 -0.112265386 0.030386614 -0.42971042 -0.0010087198 0.1502847 0.1195726 0.07713501 0.24805376 -0.22763425 0.13661145 0.025913121 -0.067337655 -0.07567429 -0.02259894 -0.14964949 0.065436706 0.026537538 -0.4361881 -0.02254858 0.18751112 -0.034829143 -0.17005278 0.15763651 -0.036531854 0.036344785 -0.0957139 -0.1957854 0.42266902 -0.14407302 -0.2186702 0.13990201 0.088742495 -0.098855525 -0.018517712 -0.36086157 -0.20598662 -0.28541777 0.03331703 -0.12960748 0.15743503 0.08981449
25 -0.39349177 0.15366477 -0.24273492 0.52394485 -0.044564676 0.27605623 -0.53390706 0.083737895 0.04741054 -0.010655264 -0.022623042 0.1965521 0.006545053 -0.34567013 0.1635956 0.08480426 -0.056569576 -0.09498165 0.05918735 0.059127886 0.19937018 -0.35048863 0.022495931 -0.35463983 0.045181405 -0.0032297282 0.24438897 0.093167014 -0.009347223 -0.20596324 0.05846416 0.10424092 0.08972502 0.03130847 -0.019781083 -0.19180799 0.032175522 -0.040215317 -0.2418837 -0.37613833 0.12616573 0.11728249 -0.2712096 -0.04187129 -0.61809695 -0.32096237 -0.08083086 0.08777857 0.2187699 -0.2813322 -0.29322973 -0.34308523 0.34192795 -0.27262738 -0.26318535 -0.05324493 0.27719077 -0.20981437 -0.27648196 -0.057970032 0.052259598 -0.26568872
61 0.25653577 -0.026045037 -0.29144046 -0.005957539 -0.1698439 0.31233 0.13300163 0.1708365 0.14707774 -0.5513564 0.17359209 -0.29939565 0.010834879 0.32483482 0.11050394 -0.1515742 -0.3127832 -0.23995142 0.039928623 0.3405295 0.26501036 -0.053053677 -0.10031388 -0.4846451 0.0063550672 0.17813353 0.10311367 0.08641037 0.34618303 -0.1985549 0.25696838 -0.032683663 -0.05720963 0.015314494 -0.042556394 -0.2815962 0.09292642 0.032290272 -0.5485868 -0.0051733796 0.26097018 0.004176514 -0.22180453 0.15175249 0.03115512 0.059401635 -0.056463353 -0.23041049 0.4371549 -0.1661622 -0.22726232 0.21572408 -0.019697728 -0.11677274 0.065949254 -0.5324734 -0.29409814 -0.36732337 0.052917756 -0.06214831 0.2157441 0.099114
32 -0.4284692 0.22285868 -0.29289466 0.59814465 -0.09889496 0.3059918 -0.5640898 0.050713517 0.058465604 0.006183969 -0.1363567 0.1597861 -0.034769006 -0.40248477 0.26634067 0.045233857 -0.07551944 -0.13586898 0.20571974 0.014000699 0.08661072 -0.33688203 0.09250739 -0.38768345 0.12005313 0.04178486 0.2056687 0.075326696 0.0029065646 -0.07591715 0.054910343 0.007595196 -0.0005915866 0.036035128 0.020914624 -0.1509885 0.19854276 -0.05875511 -0.3180138 -0.3460289 0.12679116 0.16014579 -0.25585887 -0.08923621 -0.77525604 -0.3582899 -0.091996446 0.2372663 0.14135525 -0.3752939 -0.18832205 -0.41011974 0.22590473 -0.30032417 -0.2976173 -0.056798834 0.27382764 -0.18980058 -0.34918055 0.0034617523 0.19257753 -0.23937882
3 0.17669775 0.028363613 -0.26443002 0.058670495 -0.08855015 0.22972734 0.014194224 0.15568012 0.10845756 -0.34888276 0.059903108 -0.12393318 0.024054386 0.086246096 0.057877596 -0.11103704 -0.24049781 -0.1673275 0.0728067 0.20721336 0.174061 -0.10607846 -0.12461263 -0.35119256 0.0122480355 0.14952055 0.06578361 0.052399468 0.2686802 -0.12596871 0.18150231 -0.015859101 0.011730583 0.04921731 -0.055490233 -0.29200426 0.1542959 0.0123502435 -0.42259252 -0.0982993 0.22517045 0.07599551 -0.21027462 0.08446005 -0.11070913 -0.043694306 -0.01725177 -0.06936478 0.274519 -0.17806776 -0.16114624 0.044177525 0.05119045 -0.15644681 0.005812316 -0.36186752 -0.0992379 -0.27562815 -0.08775387 0.011977421 0.1134601 -0.047765546
26 -0.3798448 0.13872299 -0.2317513 0.51455504 -0.03715573 0.267712 -0.52991176 0.091492906 0.051730204 -0.014554474 0.002068955 0.20185737 0.0013553991 -0.320197 0.15665905 0.10503185 -0.060192246 -0.08468912 0.027811326 0.06526085 0.22419459 -0.35800213 0.009177634 -0.34071946 0.031151848 -0.028169323 0.25028977 0.1011237 -0.0010344568 -0.22637975 0.04774896 0.11158472 0.083573736 0.030648164 -0.03382588 -0.19219424 0.013938004 -0.04869212 -0.23638006 -0.377723 0.13589093 0.12585482 -0.27855054 -0.043308113 -0.6032274 -0.3020224 -0.09213769 0.05933068 0.22483444 -0.2730719 -0.31869 -0.31856614 0.3426532 -0.2713084 -0.23941626 -0.05404739 0.26818407 -0.21268444 -0.26833087 -0.07462886 0.028293993 -0.26099485
23 0.1914785 0.019233264 -0.30241257 0.061430145 -0.02992236 0.23460683 0.005782209 0.16111347 0.10213944 -0.3197892 0.03368943 -0.10466727 0.05021674 0.05028175 -0.0053258114 -0.12318388 -0.2384534 -0.20406945 0.10655761 0.14218701 0.121733 -0.12411444 -0.18318395 -0.3164748 0.035685867 0.11442843 0.05595486 0.03197996 0.25124517 -0.090129234 0.2176695 -0.040525176 0.018987834 0.104487464 -0.056769438 -0.31808567 0.17672393 -0.0011321534 -0.40148824 -0.13511126 0.23521012 0.09239581 -0.20048651 0.03452709 -0.16076414 -0.10177177 -0.00089477864 -0.027568528 0.20742613 -0.18718638 -0.15637486 0.018976938 0.022351783 -0.1404686 0.019739104 -0.36750028 -0.07161279 -0.24126069 -0.13788387 0.04558014 0.09641835 -0.11064706
53 0.23294838 -0.0038636224 -0.2848226 0.016003614 -0.22458957 0.3013175 0.11899596 0.18718356 0.14599387 -0.57291234 0.19596277 -0.30297175 -0.005691354 0.34232754 0.12926812 -0.13658921 -0.32597938 -0.22510335 0.020958053 0.37755844 0.2729008 -0.071341306 -0.079797976 -0.5221694 -0.009805663 0.18556203 0.09953603 0.08718649 0.36145934 -0.22276196 0.24626389 -0.027979758 -0.0579641 -0.016119493 -0.042697866 -0.25584736 0.08067074 0.04116037 -0.5655256 -0.001592846 0.2596259 -0.016862746 -0.21309033 0.18971822 0.0607213 0.084762275 -0.08487669 -0.2431158 0.4682736 -0.13803619 -0.23279516 0.24016084 -0.005070374 -0.097719155 0.07053832 -0.52562237 -0.3078199 -0.37007004 0.07625056 -0.10039386 0.22085804 0.12449678
56 -0.4635225 0.19410935 -0.29150152 0.5913101 -0.1264867 0.3169487 -0.60428035 0.08722885 0.009239429 0.041957427 -0.11896826 0.17385863 -0.029906701 -0.39461505 0.24408832 0.08050707 -0.097212814 -0.12829341 0.177905 0.034090217 0.13137722 -0.3479105 0.115847774 -0.38026246 0.11443227 0.041013192 0.26468208 0.082154006 -0.022625824 -0.11938249 0.055874247 0.04485516 0.039015565 0.019137628 0.0352139 -0.14269613 0.12673056 -0.062570184 -0.29846877 -0.35447362 0.14174163 0.14932488 -0.2808758 -0.08638831 -0.7575378 -0.34268165 -0.09408265 0.17143938 0.18695343 -0.35459986 -0.22505663 -0.37789088 0.26505002 -0.29407555 -0.3034353 -0.059691887 0.26959115 -0.2263459 -0.35013503 -0.051439203 0.13787729 -0.24781285
39 -0.15990527 0.10798307 -0.26426452 0.33633205 -0.048287455 0.24150398 -0.31226605 0.10621035 0.008781695 -0.05110169 -0.10445019 0.0820333 0.023513852 -0.23726477 0.11508922 -0.015782384 -0.14099747 -0.12550782 0.16915028 0.02298618 0.06901987 -0.21359144 -0.010974482 -0.27764842 0.092907704 0.07704208 0.14730991 0.03739348 0.07218845 -0.044870913 0.106515795 -0.00078762235 0.028886588 0.08547254 0.0120610725 -0.18840142 0.14445776 -0.043041285 -0.26607224 -0.25732094 0.16090874 0.1290425 -0.22191718 -0.06472408 -0.47924578 -0.2286939 -0.013755748 0.12142737 0.12528834 -0.2787561 -0.12134152 -0.23152506 0.13336395 -0.22640741 -0.171597 -0.1446122 0.1480051 -0.19333327 -0.28368878 0.02857526 0.100147836 -0.21110572
55 0.31354126 -0.009973366 -0.34773552 -0.024607837 -0.049759023 0.27226773 0.11177381 0.19089979 0.16152295 -0.45896628 0.0808696 -0.1826968 0.06305695 0.17099983 -0.023887977 -0.17040084 -0.30484223 -0.24226469 0.08393927 0.2291372 0.17283583 -0.10379519 -0.2366297 -0.3949902 0.02830619 0.15694264 0.044670932 0.054275393 0.33095348 -0.12439654 0.2859706 -0.052862532 0.0063863304 0.08994985 -0.100759976 -0.40232038 0.1901977 0.018364519 -0.48833212 -0.091364294 0.2630999 0.07817459 -0.22120276 0.08377567 -0.07460904 -0.05131593 -0.0016495123 -0.09854622 0.27748755 -0.16840282 -0.19201803 0.09795389 0.008444936 -0.12266731 0.07285671 -0.4719536 -0.14534035 -0.271632 -0.06963064 0.05882832 0.12033621 -0.07814235
49 0.13260345 0.08407297 -0.22751741 0.09117597 -0.32157728 0.3187645 0.027783014 0.19534369 0.14037663 -0.5241259 0.17935522 -0.2672822 -0.06981158 0.3401487 0.19069551 -0.1375603 -0.34443817 -0.15621568 0.033753738 0.4205233 0.34282365 -0.048813343 0.067570455 -0.55885017 0.05739021 0.2528609 0.17528298 0.04813052 0.313835 -0.23958743 0.15847152 0.029801976 -0.11735247 -0.11993866 -0.034502864 -0.1351558 0.122763045 0.079901166 -0.5210365 0.056714505 0.2200597 -0.0989059 -0.21856481 0.23634487 0.040850807 0.15371166 -0.13915835 -0.27838066 0.59931606 -0.12553501 -0.21331476 0.29866135 0.055592407 -0.102405764 0.0053857146 -0.50308275 -0.34449992 -0.3476585 0.100911096 -0.22443971 0.22172455 0.16190222
46 0.15926969 0.085403025 -0.23315407 0.061919525 -0.34391427 0.32656997 0.05173668 0.21424998 0.12530161 -0.5313659 0.18303297 -0.2951552 -0.06431397 0.3573613 0.18793273 -0.14714289 -0.34995818 -0.161544 0.029703781 0.45334575 0.3442847 -0.02192561 0.09516469 -0.57441247 0.052830193 0.2885496 0.17098027 0.042315263 0.34599724 -0.22501966 0.18188521 0.029281871 -0.11211719 -0.118741855 -0.035466637 -0.14181471 0.11330896 0.0842876 -0.5385187 0.058032338 0.22358097 -0.109816544 -0.20894015 0.24545841 0.082276106 0.15665606 -0.119343296 -0.29686418 0.6034872 -0.12878542 -0.21304697 0.3082342 0.057728067 -0.09853382 0.014809053 -0.50489825 -0.3545048 -0.36993268 0.11089705 -0.22185789 0.23323406 0.18276615
60 -0.4878831 0.24464479 -0.30823484 0.6738646 -0.09926024 0.331014 -0.63861424 0.05757715 0.055027544 0.0288883 -0.14207177 0.17142679 -0.042666618 -0.4685097 0.28287834 0.07265609 -0.07849195 -0.12932688 0.21030499 0.0211811 0.13154435 -0.39233288 0.08937434 -0.42325577 0.1320674 0.042943086 0.2434699 0.07898151 -0.021248825 -0.109274045 0.055300318 0.0018025803 0.011457147 0.024139803 0.024444815 -0.18888058 0.19518788 -0.06367615 -0.31513074 -0.39402094 0.12511106 0.16057916 -0.29305434 -0.083564445 -0.86110264 -0.39082402 -0.08487394 0.2597591 0.17909731 -0.40493092 -0.22633415 -0.46731383 0.284945 -0.34253222 -0.33172223 -0.035020407 0.3172429 -0.20870978 -0.3965436 -0.0131170945 0.19793122 -0.267542
22 -0.4352372 0.1852986 -0.2693571 0.5525753 -0.076942384 0.28536552 -0.57714015 0.08920883 0.016771939 0.04001483 -0.09655513 0.2197082 -0.014405352 -0.39275166 0.19340214 0.07804458 -0.06607922 -0.11527619 0.13351238 0.039023753 0.16054803 -0.34970358 0.065629646 -0.35451636 0.08194806 0.017559854 0.25417843 0.078422725 -0.025962697 -0.13460396 0.0505829 0.076627314 0.07148016 0.05085586 0.020116294 -0.15355504 0.08655851 -0.050710626 -0.2475643 -0.3817024 0.13312058 0.15301432 -0.27975503 -0.0857492 -0.7224061 -0.33734438 -0.0795708 0.15760407 0.18297893 -0.34212548 -0.24664424 -0.39594164 0.29570836 -0.30111843 -0.30302116 -0.022597808 0.293327 -0.2016087 -0.3398853 -0.0390964 0.08467469 -0.27950957
11 0.29332253 -0.0025982733 -0.35190046 -0.023603633 -0.011933381 0.2602593 0.102019094 0.17865965 0.14898647 -0.40586886 0.045722287 -0.14302571 0.0808623 0.11731392 -0.049998417 -0.16172537 -0.27834752 -0.23383927 0.11228853 0.17545305 0.1215525 -0.0984186 -0.24043062 -0.34252834 0.032047402 0.12715788 0.037478346 0.036529288 0.29880363 -0.0722179 0.28139862 -0.05430542 0.03742127 0.121481635 -0.08860872 -0.40937135 0.19627781 0.017433623 -0.4776582 -0.12076433 0.26976746 0.10253833 -0.21770355 0.04706834 -0.119355254 -0.098318994 0.013494128 -0.05953583 0.23566906 -0.17379501 -0.17129245 0.062423427 0.005561138 -0.1354624 0.05470921 -0.42871293 -0.10325017 -0.2516452 -0.11597159 0.070563145 0.10597475 -0.12560682
12 0.16656011 0.0407151 -0.2557297 0.07955983 -0.18940936 0.26844013 0.036198106 0.17464735 0.11020859 -0.4317499 0.12074089 -0.18088554 0.00049858895 0.21730934 0.10359223 -0.10790421 -0.29065263 -0.14560884 0.043008327 0.29916638 0.22062649 -0.085079275 -0.029263515 -0.42239788 0.018312844 0.17554352 0.10098113 0.06470482 0.2630114 -0.15827863 0.19435738 0.017816776 -0.014789433 0.0022011953 -0.040015977 -0.24951288 0.09031745 0.041590605 -0.46298456 -0.062094737 0.20098555 -0.012911477 -0.1747468 0.15054967 -0.028660119 0.036423452 -0.06723733 -0.18721503 0.41223744 -0.14728203 -0.19119819 0.15682189 0.07778752 -0.11340032 -0.0012079603 -0.41105658 -0.18815857 -0.28110573 -0.0012306146 -0.075749785 0.12177681 0.04058945
4 0.30255735 -0.002318126 -0.34219232 -0.025926212 -0.051234946 0.24957892 0.1100204 0.17517379 0.1550542 -0.43208048 0.07185539 -0.16768743 0.059959557 0.16218585 -0.031192284 -0.16305502 -0.2896746 -0.22962281 0.09015703 0.2065941 0.14117502 -0.08773295 -0.21823953 -0.36776143 0.027566876 0.15743078 0.04992069 0.04276547 0.30878192 -0.096474946 0.26395229 -0.048183117 0.027166042 0.11525681 -0.09546646 -0.3814131 0.18493055 0.021251108 -0.48089352 -0.10470872 0.2573037 0.07634235 -0.20902675 0.08456838 -0.07576103 -0.058304258 -0.004500825 -0.09986631 0.25354192 -0.17097963 -0.17558752 0.09847329 0.006049194 -0.11320282 0.07336172 -0.44506946 -0.14060086 -0.26323912 -0.07994771 0.049349494 0.09655297 -0.07885969
31 -0.4946375 0.20819993 -0.30859566 0.6316467 -0.106138505 0.32514083 -0.6533558 0.09270973 0.010175911 0.051665585 -0.1247692 0.23230462 -0.02640306 -0.45172825 0.23814227 0.08067914 -0.09557991 -0.12078635 0.16446365 0.028392427 0.15934782 -0.37309036 0.086353675 -0.40891436 0.1130437 0.033781298 0.28373626 0.07963163 -0.02666846 -0.1373583 0.04674315 0.069686845 0.07182269 0.05106924 0.019723179 -0.15695944 0.11273282 -0.07161715 -0.27726972 -0.4055267 0.13705744 0.16802703 -0.30613592 -0.09242665 -0.801702 -0.37393257 -0.09353302 0.18377768 0.20915787 -0.38937128 -0.26795745 -0.43821254 0.3272363 -0.32693186 -0.3358032 -0.045575988 0.31521755 -0.2381645 -0.3876875 -0.051586226 0.12392812 -0.29382336
58 0.21011242 0.03212604 -0.2758713 0.055490516 -0.20391057 0.27893388 0.08191351 0.17637528 0.14426088 -0.5003662 0.16704687 -0.2319617 -0.0048339935 0.26954842 0.12161484 -0.11394321 -0.29857883 -0.1625038 0.020408614 0.33198354 0.25827497 -0.08574498 -0.047989815 -0.4600031 0.024642957 0.20116948 0.08344118 0.06280693 0.30397567 -0.20185913 0.20261745 0.002794573 -0.03037986 -0.004928539 -0.061711974 -0.24917462 0.09170722 0.048976757 -0.49265504 -0.03176443 0.22715434 -0.030841464 -0.17775068 0.1609341 0.017382244 0.06366598 -0.06173033 -0.21766096 0.42499086 -0.14104307 -0.19138275 0.2109399 0.04421686 -0.08328258 0.044239573 -0.4379219 -0.24077281 -0.29818094 0.04390717 -0.09844155 0.13679698 0.071223974
48 -0.4240649 0.1798612 -0.27306995 0.555003 -0.095187455 0.29208705 -0.5584956 0.08934696 0.025344092 0.035775557 -0.10419713 0.18229015 -0.013200023 -0.3796311 0.21807382 0.07211103 -0.09516735 -0.11054743 0.16386397 0.024959559 0.13752642 -0.33315036 0.07115362 -0.36362997 0.11537243 0.02963327 0.23307334 0.072240345 -0.00809206 -0.12893948 0.054112483 0.04623534 0.046018127 0.03189388 0.024612984 -0.13676815 0.121953815 -0.06340706 -0.2635862 -0.34954792 0.12280782 0.14856432 -0.26429015 -0.071411364 -0.7068102 -0.31682855 -0.08451634 0.17747241 0.16777343 -0.34331498 -0.219899 -0.3758866 0.265928 -0.28691974 -0.29520065 -0.046294082 0.2632032 -0.20936295 -0.3363764 -0.03486465 0.12382658 -0.2541388
35 0.31221437 -0.020702459 -0.31942624 -0.02740705 -0.10254535 0.28461668 0.1289023 0.17581055 0.1663506 -0.5016524 0.12949963 -0.23048691 0.053141236 0.24475263 0.03207745 -0.15459993 -0.3091999 -0.22322558 0.047500435 0.2577004 0.20668681 -0.0782671 -0.19802518 -0.4322417 0.028124036 0.16175696 0.05791923 0.05968861 0.32900274 -0.14698665 0.25789437 -0.040240232 -0.018063901 0.060429737 -0.09013713 -0.35726452 0.14294133 0.039291885 -0.51955014 -0.054987248 0.27010202 0.051660754 -0.22016071 0.12886818 -0.024227595 -0.014544605 -0.025415914 -0.15242514 0.36504793 -0.16116989 -0.2114731 0.17293829 0.0063233115 -0.11668001 0.08161058 -0.5127272 -0.21988207 -0.3217099 -0.02151246 -0.008511257 0.1546026 -0.016929131
